{
  "theoremName": "Galerkin-to-continuum high-block exhaustion",
  "minmaxJson": "source_inactive_minmax_tail_theorem.json",
  "ellipticJson": "commuted_sturm_elliptic_trace_theorem.json",
  "compactProofJson": "high_block_compact_exhaustion_proof.json",
  "frameJson": "trace_frame_continuum_passage_certificate.json",
  "quadratureJson": "trace_quadrature_stability_certificate.json",
  "normalizedEpsilonDelta": 0.0013454526382754603,
  "finiteLowMidSchurBudget": 0.005730309711103612,
  "absorptionSlack": 0.004384857072828152,
  "sourceTopLower": 139928626819.16638,
  "absoluteTailBound": 188267340.12410972,
  "ellipticTraceTheorem": {
    "theoremName": "commuted Sturm/source-range elliptic trace theorem",
    "dominanceJson": "lagrange_commuted_dominance_summary.json",
    "obstructionJson": "commuted_compact_obstruction.json",
    "auxiliaryJson": "aux_regularizer_certificate.json",
    "sourceRangeJson": "source_range_hardy_green_theorem.json",
    "compactProofJson": "high_block_compact_exhaustion_proof.json",
    "compactKernelEllipticityStatus": {
      "label": "compact commuted-kernel Sobolev ellipticity",
      "closed": false,
      "status": "open",
      "reason": "False as a continuum theorem.  Compactly supported oscillatory packets in ker R make the compact commuted-kernel form vanish relative to W^{m,2}; the notes and obstruction certificate rule out proving coercivity from this object alone."
    },
    "finiteCommutedDominationStatus": {
      "label": "finite commuted domination",
      "closed": true,
      "status": "closed",
      "reason": "Finite Galerkin evidence shows subunit domination for suitable cutoff/order pairs, but this uses the compact commuted matrix and does not itself prove the continuum trace theorem."
    },
    "sourceRangeHardyGreenStatus": {
      "label": "continuum source-range Hardy/Green estimate",
      "closed": false,
      "status": "open",
      "reason": "Prove the continuum active trace-to-source range inclusion and the continuum source-inactive Hardy/Schur tail bound for the actual source rows. Do not require separate boundedness of all endpoint jet functionals."
    },
    "sourceRangeHardyGreenTheorem": {
      "theoremName": "source-range Hardy/Green estimate",
      "greenJson": "closed_trace_hardy_green_certificate.json",
      "derivativeJson": "source_window_derivative_scan.json",
      "auxiliaryJson": "aux_regularizer_certificate.json",
      "continuumGreenJson": "continuum_green_representer_theorem.json",
      "rieszRepresenterEquivalenceStatus": {
        "label": "A-Riesz representer equivalence",
        "closed": true,
        "status": "closed",
        "reason": "In a Hilbert space, E_u^*E_u <= eta_u A is equivalent to the scalar source rows being A-bounded; the optimal eta_u is the top eigenvalue of the Gram matrix of their A-Riesz representers."
      },
      "finiteGreenRepresenterStatus": {
        "label": "finite Galerkin Green representers",
        "closed": true,
        "status": "closed",
        "reason": "Finite closed-trace high-block representers solve the A-Riesz range equations to roundoff in the current Galerkin model."
      },
      "sourceWindowDerivativeCoverStatus": {
        "label": "finite source-window derivative covering",
        "closed": true,
        "status": "closed",
        "reason": "The analytic u-derivative source rows give a finite-net covering bound over the source window; this is evidence for uniformity, not the continuum representer construction itself."
      },
      "continuumGreenRepresenterStatus": {
        "label": "continuum closed-trace Green representers",
        "closed": false,
        "status": "open",
        "reason": "Prove the continuum active trace-to-source range inclusion and the continuum source-inactive Hardy/Schur tail bound for the actual source rows. Do not require separate boundedness of all endpoint jet functionals."
      },
      "continuumGreenRepresenterTheorem": {
        "theoremName": "continuum Green representer construction",
        "adjointJson": "adjoint_eval_representer_certificate.json",
        "boundaryJson": "boundary_row_representer_certificate.json",
        "fixedJson": "fixed_representer_theorem_scan.json",
        "closedGreenJson": "closed_trace_hardy_green_certificate.json",
        "globalObservabilityJson": "global_trace_source_observability_scan.json",
        "traceToSourceJson": "trace_to_source_kernel_profile.json",
        "traceGreenJson": "continuum_trace_to_source_green_kernel.json",
        "inactiveTailJson": "full_theta_source_inactive_schur_tail_certificate.json",
        "directSourceRowDefinitionStatus": {
          "label": "direct source-row definition",
          "closed": true,
          "status": "closed",
          "reason": "The source rows are the two explicit Lagrange/adjoint rows ell_{u,1}=B_P[h_u,.](s0) and ell_{u,2}=(P^*h_u)(s0)ev_{s0}."
        },
        "finiteDirectRepresenterStatus": {
          "label": "finite direct source-row Green representers",
          "closed": true,
          "status": "closed",
          "reason": "Finite Galerkin sections solve the A-Riesz range equations for the actual source rows to roundoff."
        },
        "activeTraceRangeInclusionStatus": {
          "label": "active interval trace range inclusion",
          "closed": false,
          "status": "open",
          "reason": "Finite active blocks satisfy E_active=C_sample R_global to roundoff, and the sampled density refinement is stable. The continuum trace-to-source Green kernel has not yet been proved."
        },
        "sourceInactiveTailStatus": {
          "label": "source-inactive Hardy/Schur tail",
          "closed": false,
          "status": "open",
          "reason": "The finite full-Phi inactive source bound is below the Schur budget, but the continuum high-block Hardy/Schur tail passage is still open."
        },
        "directGreenRepresenterStatus": {
          "label": "continuum direct Green representers",
          "closed": false,
          "status": "open",
          "reason": "By Riesz, g_{u,k} exists once ell_{u,k} is A-bounded on the completed high closed-trace space. The remaining proof is active trace range inclusion plus the source-inactive tail estimate."
        },
        "uniformSourceGramBoundStatus": {
          "label": "uniform 2x2 source Gram bound",
          "closed": false,
          "status": "open",
          "reason": "Equivalent to a uniform source-row Hardy/Green bound sup_u ||E_u||_{A->C^2}<infinity. It follows after the direct representer theorem is closed."
        },
        "fixedJetSufficientRouteStatus": {
          "label": "fixed-jet sufficient route",
          "closed": false,
          "status": "open",
          "reason": "The decomposition through k_j^hi is algebraically sufficient, but finite fixed-jet norms grow sharply; the proof should keep the special source rows together."
        },
        "continuumFixedJetRepresenterStatus": {
          "label": "fixed-jet sufficient route",
          "closed": false,
          "status": "open",
          "reason": "The decomposition through k_j^hi is algebraically sufficient, but finite fixed-jet norms grow sharply; the proof should keep the special source rows together."
        },
        "continuumGreenRepresentersClosed": false,
        "adjointEvalCertificate": {
          "basis": 20,
          "constraints": 12,
          "cutoff": 6,
          "evalRepresenterNorm2": 80.1690618322107,
          "evalRangeRelativeDefect": 1.3675188064772776e-80,
          "maxFactorRelativeDefect": 5.196439781691699e-81,
          "coverEvalNorm2": 929820.1045831669,
          "coverDEvalNorm2": 133556.46204751093
        },
        "boundaryRowCertificate": {
          "basis": 20,
          "constraints": 12,
          "cutoff": 6,
          "maxJetRangeRelativeDefect": 2.2110466143138383e-80,
          "maxFactorRelativeDefect": 1.974491209389988e-80,
          "coverBoundaryNorm2": 9691.01222596988,
          "coverDBoundaryNorm2": 354.9747201881841
        },
        "fixedRepresenterScan": {
          "bases": [
            18,
            20,
            22
          ],
          "cutoff": 6,
          "coefficientEnvelope": {
            "traceLambda0": -0.00012862612661029079,
            "traceLambda1": 9.42101395763874e-06,
            "sourceMin": 0.08,
            "sourceMax": 0.52,
            "sourceGrid": 17,
            "mesh": 0.0275,
            "meshRadius": 0.01375,
            "maxAbsP": 107.41740043918624,
            "maxAbsDP": 40.39704932949021,
            "maxAbsD2P": 60.919291893472504,
            "coverAbsP": 107.97285986746674,
            "coverAbsDP": 41.23468959302546,
            "rows": [
              {
                "u": 0.08,
                "p": -107.41740043918624,
                "dp": 21.951179400950767,
                "d2p": 60.919291893472504,
                "b": [
                  -10.432720524741622,
                  0.3403507939139897,
                  0.03864978066970546,
                  -0.0017031848593495973,
                  0.00020727018836353052,
                  -8.930068432332228e-05,
                  1.2449561198109168e-05,
                  -4.894851292164622e-07
                ],
                "db": [
                  -0.1478640608053088,
                  -0.06062773437906138,
                  -0.0008994281598308694,
                  0.00019110787226921756,
                  1.6444406671433725e-05,
                  -3.941617061351108e-07,
                  -3.699667100465361e-07,
                  1.8867334683366647e-08
                ],
                "d2b": [
                  4.788898347621405,
                  -0.1789821534386598,
                  -0.0180994367158869,
                  0.0007741736747680523,
                  -7.375484431870925e-05,
                  3.855917685133218e-05,
                  -5.59612790424234e-06,
                  2.219729839238881e-07
                ]
              },
              {
                "u": 0.1075,
                "p": -106.79095890167775,
                "dp": 23.59893575896885,
                "d2p": 58.897094358470696,
                "b": [
                  -10.434971346334624,
                  0.3386165490567244,
                  0.03861820479047876,
                  -0.001697638887313036,
                  0.0002076942918593417,
                  -8.929692053425511e-05,
                  1.2437273103242516e-05,
                  -4.888824774235274e-07
                ],
                "db": [
                  -0.0156773007954621,
                  -0.06547349654049803,
                  -0.0013968687910514805,
                  0.00021215304749516554,
                  1.439132478562095e-05,
                  6.686317584711987e-07,
                  -5.23625575267363e-07,
                  2.4956498049616853e-08
                ],
                "d2b": [
                  4.822664708006303,
                  -0.17338249954882415,
                  -0.018070954878935213,
                  0.0007561755192032614,
                  -7.553495090536013e-05,
                  3.872063950128595e-05,
                  -5.577077869261816e-06,
                  2.2079757463252024e-07
                ]
              },
              {
                "u": 0.135,
                "p": -106.11998375896385,
                "dp": 25.18945454247282,
                "d2p": 56.758715996120266,
                "b": [
                  -10.433575787500704,
                  0.33675120313863316,
                  0.038572965402174024,
                  -0.0016915211326376444,
                  0.0002080612817261189,
                  -8.926387960790796e-05,
                  1.2420768081446166e-05,
                  -4.881128763005894e-07
                ],
                "db": [
                  0.11727199618849812,
                  -0.07016094215000172,
                  -0.001892945168641068,
                  0.00023268660252224264,
                  1.2291391933752266e-05,
                  1.734695863643941e-06,
                  -6.765986226152141e-07,
                  3.100700719651002e-08
                ],
                "d2b": [
                  4.844378139199774,
                  -0.16747415830817372,
                  -0.018000422887228407,
                  0.0007369857260761995,
                  -7.71615242583514e-05,
                  3.87972830268278e-05,
                  -5.5463159397017465e-06,
                  2.191646735311837e-07
                ]
              },
              {
                "u": 0.1625,
                "p": -105.40609133907924,
                "dp": 26.719719435591138,
                "d2p": 54.5171729390125,
                "b": [
                  -10.428517417218211,
                  0.3347592220932194,
                  0.038514115762212434,
                  -0.00168484609975372,
                  0.00020836992810035232,
                  -8.920150348175897e-05,
                  1.2400069370460075e-05,
                  -4.871775595886974e-07
                ],
                "db": [
                  0.25065448391349615,
                  -0.07468207271228959,
                  -0.0023865185234394526,
                  0.0002526774809220021,
                  1.0148882341653202e-05,
                  2.8017193895404952e-06,
                  -8.285693585290786e-07,
                  3.700652685726189e-08
                ],
                "d2b": [
                  4.854201000163797,
                  -0.16129281224600606,
                  -0.017889147559439846,
                  0.0007167288260932102,
                  -7.863087467301697e-05,
                  3.8790706954955323e-05,
                  -5.50425401659938e-06,
                  2.170923689867665e-07
                ]
              },
              {
                "u": 0.19,
                "p": -104.6509759828204,
                "dp": 28.187073502008676,
                "d2p": 52.18556934098406,
                "b": [
                  -10.41978879339988,
                  0.33264527831569973,
                  0.0384417399307144,
                  -0.0016776291001538953,
                  0.00020861911998127622,
                  -8.910979700973729e-05,
                  1.2375208751551824e-05,
                  -4.860780932511105e-07
                ],
                "db": [
                  0.3841460085535439,
                  -0.07902987119483497,
                  -0.0028764881153542456,
                  0.00027209803912302087,
                  7.968163648866286e-06,
                  3.867439149848858e-06,
                  -9.792330812713416e-07,
                  4.294323625707751e-08
                ],
                "d2b": [
                  4.852348143226697,
                  -0.1548741156039102,
                  -0.01773858560359435,
                  0.0006955283565249551,
                  -7.993990099955176e-05,
                  3.8702802220518384e-05,
                  -5.451337198743502e-06,
                  2.145999653841296e-07
                ]
              },
              {
                "u": 0.2175,
                "p": -103.85640013983931,
                "dp": 29.589220265750402,
                "d2p": 49.77700047525181,
                "b": [
                  -10.407391300580407,
                  0.33041422371513096,
                  0.03835595166972895,
                  -0.001669886159019204,
                  0.00020880786757514848,
                  -8.898882653334105e-05,
                  1.2346226213135893e-05,
                  -4.848163608838379e-07
                ],
                "db": [
                  0.5174290160815855,
                  -0.0831982978100281,
                  -0.0033617951683951276,
                  0.0002909240078110382,
                  5.753680504136117e-06,
                  4.92964776072459e-06,
                  -1.128297744957895e-06,
                  4.8805860491361075e-08
                ],
                "d2b": [
                  4.839084223845361,
                  -0.14825344616223088,
                  -0.01755032990200731,
                  0.0006735060502532352,
                  -8.108610594496571e-05,
                  3.85357331271691e-05,
                  -5.388040210421651e-06,
                  2.1170783274064344e-07
                ]
              },
              {
                "u": 0.245,
                "p": -103.02418447121939,
                "dp": 30.924222175913027,
                "d2p": 47.30445953333022,
                "b": [
                  -10.391334949961628,
                  0.3280710629747848,
                  0.038256893239521784,
                  -0.001661633923205955,
                  0.00020893530418311215,
                  -8.883871824610341e-05,
                  1.231316959199333e-05,
                  -4.833945483204017e-07
                ],
                "db": [
                  0.6501938809670744,
                  -0.08718227914780682,
                  -0.0038414264193448308,
                  0.000309134431834437,
                  3.509937793943912e-06,
                  5.986200895026549e-06,
                  -1.275484724250541e-06,
                  5.458369774186154e-08
                ],
                "d2b": [
                  4.814720674185806,
                  -0.141465670166026,
                  -0.01732609515477847,
                  0.0006507810844539599,
                  -8.206760743342262e-05,
                  3.829191798731733e-05,
                  -5.314863754974724e-06,
                  2.084372546357876e-07
                ]
              },
              {
                "u": 0.2725,
                "p": -102.15619802896134,
                "dp": 32.190496569535426,
                "d2p": 44.78074901305037,
                "b": [
                  -10.371638144101412,
                  0.32562092719841856,
                  0.03814473410276853,
                  -0.0016528895711612618,
                  0.0002090006876240555,
                  -8.865965636603491e-05,
                  1.2276094194847246e-05,
                  -4.818151275457349e-07
                ],
                "db": [
                  0.7821401474894667,
                  -0.09097769104700211,
                  -0.004314417264711124,
                  0.00032671159033052696,
                  1.2414836143517217e-06,
                  7.035023988337068e-06,
                  -1.42052947815172e-06,
                  6.026664230398187e-08
                ],
                "d2b": [
                  4.779612381376626,
                  -0.13454492234155502,
                  -0.017067703048178774,
                  0.0006274693942149559,
                  -8.288314589656105e-05,
                  3.7974008646708837e-05,
                  -5.232330828957373e-06,
                  2.04810275870333e-07
                ]
              },
              {
                "u": 0.3,
                "p": -101.25434857934155,
                "dp": 33.38680926995107,
                "d2p": 42.21839748953627,
                "b": [
                  -10.348327408755631,
                  0.32306904810869835,
                  0.0380196695478592,
                  -0.0016436707252860446,
                  0.0002090034011869629,
                  -8.845188113151317e-05,
                  1.22350624030794e-05,
                  -4.800808400343369e-07
                ],
                "db": [
                  0.9129776761374264,
                  -0.0945813356445221,
                  -0.004779854495185437,
                  0.00034364089891803873,
                  -1.0471079006639973e-06,
                  8.074118368979385e-06,
                  -1.5631821122855717e-06,
                  6.584520343662136e-08
                ],
                "d2b": [
                  4.734154113794999,
                  -0.1275244027097157,
                  -0.01677706711436053,
                  0.0006036830552374922,
                  -8.353208741021543e-05,
                  3.7584869104068055e-05,
                  -5.140983030691637e-06,
                  2.0084955121188798e-07
                ]
              },
              {
                "u": 0.3275,
                "p": -100.32057313304135,
                "dp": 34.512265978394154,
                "d2p": 39.629582459685075,
                "b": [
                  -10.321437094572978,
                  0.3204207329513439,
                  0.03788191924275323,
                  -0.001633995367212148,
                  0.00020894295411038634,
                  -8.821568663677555e-05,
                  1.2190143263377532e-05,
                  -4.781946796269923e-07
                ],
                "db": [
                  1.042427688781968,
                  -0.09799091308434422,
                  -0.005236878611383497,
                  0.0003599107958994028,
                  -3.3512537795475803e-06,
                  9.101566790066952e-06,
                  -1.703207839960128e-06,
                  7.13105200822655e-08
                ],
                "d2b": [
                  4.678776740515068,
                  -0.12043619160426068,
                  -0.01645617744645043,
                  0.0005795297386123622,
                  -8.401442264044774e-05,
                  3.712755343830995e-05,
                  -5.041376895603734e-06,
                  1.9657819651096624e-07
                ]
              },
              {
                "u": 0.355,
                "p": -99.35682874035949,
                "dp": 35.5663016341222,
                "d2p": 37.02605984078029,
                "b": [
                  -10.29100905149876,
                  0.31768134024482014,
                  0.03773172573093441,
                  -0.0016238817564057824,
                  0.0002088189815898344,
                  -8.795141852369401e-05,
                  1.2141412067082848e-05,
                  -4.7615987505856997e-07
                ],
                "db": [
                  1.170223707568651,
                  -0.10120498840279712,
                  -0.005684685719095496,
                  0.0003755126144828438,
                  -5.666379326956356e-06,
                  1.0115538347460461e-05,
                  -1.840387343172894e-06,
                  7.665437153920095e-08
                ],
                "d2b": [
                  4.613943290075589,
                  -0.11331108399610886,
                  -0.016107085428381403,
                  0.0005551122395169632,
                  -8.433076160914936e-05,
                  3.6605283255191525e-05,
                  -4.934080288987955e-06,
                  1.9201964338600583e-07
                ]
              },
              {
                "u": 0.3825,
                "p": -98.36508360479516,
                "dp": 36.54866793272174,
                "d2p": 34.419100589626645,
                "b": [
                  -10.257092278865272,
                  0.3148562565008161,
                  0.03756935288100402,
                  -0.0016133483524536666,
                  0.000208631244317033,
                  -8.765947154687483e-05,
                  1.2088949920963902e-05,
                  -4.7397987224672833e-07
                ],
                "db": [
                  1.2961123837489474,
                  -0.10422295413265592,
                  -0.006122529006565913,
                  0.00039044044306973057,
                  -7.987935036732506e-06,
                  1.1114292773296348e-05,
                  -1.9745170355372234e-06,
                  8.186918419938152e-08
                ],
                "d2b": [
                  4.540144895016108,
                  -0.10617844391654026,
                  -0.015731888631955133,
                  0.000530528080569569,
                  -8.448232433684674e-05,
                  3.602142486205259e-05,
                  -4.8196688847891975e-06,
                  1.8719749857886188e-07
                ]
              },
              {
                "u": 0.41,
                "p": -97.34730856291115,
                "dp": 37.459419203492665,
                "d2p": 31.819434792314667,
                "b": [
                  -10.219742554232855,
                  0.31195087402557387,
                  0.03739508430132478,
                  -0.001602413741331857,
                  0.0002083796275581286,
                  -8.734028702933208e-05,
                  1.2032843312078068e-05,
                  -4.7165831644782643e-07
                ],
                "db": [
                  1.4198542139440693,
                  -0.10704498918617,
                  -0.0065497198103996795,
                  0.0004046909756581898,
                  -1.0311413192005225e-05,
                  1.2096184100415977e-05,
                  -2.10540922986189e-06,
                  8.694803449432257e-08
                ],
                "d2b": [
                  4.457896668211169,
                  -0.09906607946721674,
                  -0.015332716024810986,
                  0.0005058691895195825,
                  -8.447092746690877e-05,
                  3.537946637363343e-05,
                  -4.698722756682491e-06,
                  1.8213540897623735e-07
                ]
              },
              {
                "u": 0.4375,
                "p": -96.30546897274455,
                "dp": 38.29889685483527,
                "d2p": 29.237203458622393,
                "b": [
                  -10.17902204409725,
                  0.30897056989657884,
                  0.03720922173089369,
                  -0.0015910965659010888,
                  0.00020806413978093882,
                  -8.699435022603639e-05,
                  1.1973183669297164e-05,
                  -4.6919903438206155e-07
                ],
                "db": [
                  1.5412241425868096,
                  -0.10967201458646597,
                  -0.0069656282805012504,
                  0.0004182633543913934,
                  -1.2632364043861829e-05,
                  1.3059663698502884e-05,
                  -2.2328922138046113e-06,
                  9.188464821723519e-08
                ],
                "d2b": [
                  4.3677335559372015,
                  -0.09200013860911738,
                  -0.014911713622448955,
                  0.0004812216499645525,
                  -8.429896702029529e-05,
                  3.468299494403927e-05,
                  -4.571823105201449e-06,
                  1.768569331793808e-07
                ]
              },
              {
                "u": 0.465,
                "p": -95.24151704721294,
                "dp": 39.06771260142718,
                "d2p": 26.68191814125072,
                "b": [
                  -10.134998899596694,
                  0.305920686193427,
                  0.03701208341728674,
                  -0.0015794154608172934,
                  0.000207684910844281,
                  -8.662218761254534e-05,
                  1.1910066923970949e-05,
                  -4.666060164249124e-07
                ],
                "db": [
                  1.6600120505003497,
                  -0.1121056466181369,
                  -0.007369683657953116,
                  0.0004311590062302865,
                  -1.4946411464719114e-05,
                  1.4003282687967367e-05,
                  -2.356810237636783e-06,
                  9.667339641226011e-08
                ],
                "d2b": [
                  4.270206210885793,
                  -0.0850050256404634,
                  -0.01447103070547708,
                  0.000456665522880244,
                  -8.396939747252813e-05,
                  3.393567430995883e-05,
                  -4.439549141976858e-06,
                  1.7138542038625897e-07
                ]
              },
              {
                "u": 0.4925,
                "p": -94.15738466305349,
                "dp": 39.766730688763985,
                "d2p": 24.162428390520525,
                "b": [
                  -10.087746840337195,
                  0.30280651154605415,
                  0.03680400249209191,
                  -0.0015673889919924498,
                  0.0002072421897651867,
                  -8.622436411568786e-05,
                  1.184359307208369e-05,
                  -4.6388339895644127e-07
                ],
                "db": [
                  1.776023130731139,
                  -0.11434814796168129,
                  -0.007761374182893978,
                  0.000443381475658284,
                  -1.724926797834755e-05,
                  1.4925693742550172e-05,
                  -2.477023418697484e-06,
                  1.0130928804101722e-07
                ],
                "d2b": [
                  4.165876926049776,
                  -0.07810333800981156,
                  -0.014012806710107345,
                  0.0004322747359405484,
                  -8.348570738399581e-05,
                  3.3141222818475876e-05,
                  -4.3024751493404025e-06,
                  1.6574389722935593e-07
                ]
              },
              {
                "u": 0.52,
                "p": -93.05497666991295,
                "dp": 40.39704932949021,
                "d2p": 21.686896951592143,
                "b": [
                  -10.037344729408575,
                  0.2996332640481514,
                  0.03658532535373862,
                  -0.0015550356006897045,
                  0.00020673634208241514,
                  -8.580148030290877e-05,
                  1.1773865740126478e-05,
                  -4.6103544695400156e-07
                ],
                "db": [
                  1.8890781538411971,
                  -0.11640237736334184,
                  -0.00814024665223635,
                  0.00045493625523237763,
                  -1.953674907535622e-05,
                  1.5825652296203964e-05,
                  -2.593407567577415e-06,
                  1.0578795965269528e-07
                ],
                "d2b": [
                  4.055315667623544,
                  -0.07131582286836684,
                  -0.013539158885897074,
                  0.00040811703689825084,
                  -8.285189185037458e-05,
                  3.230339209949458e-05,
                  -4.161167730675016e-06,
                  1.5995496309024263e-07
                ]
              }
            ]
          },
          "rows": [
            {
              "basis": 18,
              "constraints": 11,
              "rank": 11,
              "nullity": 7,
              "positiveModes": 7,
              "cutoff": 6,
              "highModes": 1,
              "lambdaMinHigh": 0.1543899343461991,
              "lambdaMaxHigh": 0.1543899343461991,
              "evalRepresenterNorm2": 4.235662879762652,
              "evalCoverNorm2": 49379.94435586954,
              "evalDerivativeCoverNorm2": 7201.896009615849,
              "maxBNormGrid": 21.518375917090488,
              "maxDBNormGrid": 3.898992553314384,
              "maxD2BNormGrid": 10.010205990388952,
              "boundaryCoverNorm2": 465.35062591952203,
              "boundaryDerivativeCoverNorm2": 16.294405053771264,
              "maxJetRangeRelativeDefect": 5.180434607166608e-81,
              "jetRepresenters": [
                {
                  "deriv": 0,
                  "norm2": 4.235662879762652,
                  "norm": 2.0580726128498603,
                  "rangeRelativeDefect": 2.6072998360247914e-81
                },
                {
                  "deriv": 1,
                  "norm2": 0.0023575098238513927,
                  "norm": 0.04855419470912264,
                  "rangeRelativeDefect": 5.180434607166608e-81
                },
                {
                  "deriv": 2,
                  "norm2": 0.46295817674203493,
                  "norm": 0.6804103002909604,
                  "rangeRelativeDefect": 3.943218072768676e-81
                },
                {
                  "deriv": 3,
                  "norm2": 0.05704778555724192,
                  "norm": 0.238846782597635,
                  "rangeRelativeDefect": 4.212438247794682e-81
                },
                {
                  "deriv": 4,
                  "norm2": 1.9642756536418382,
                  "norm": 1.4015261872836478,
                  "rangeRelativeDefect": 1.914346101663156e-81
                },
                {
                  "deriv": 5,
                  "norm2": 14.179277564001737,
                  "norm": 3.765538150650148,
                  "rangeRelativeDefect": 2.8500640128073447e-81
                },
                {
                  "deriv": 6,
                  "norm2": 108.1134078604452,
                  "norm": 10.397759752006449,
                  "rangeRelativeDefect": 4.1285911688621803e-81
                },
                {
                  "deriv": 7,
                  "norm2": 6465.758268737073,
                  "norm": 80.40993886788544,
                  "rangeRelativeDefect": 3.2031935125792736e-81
                }
              ],
              "jetGram": [
                [
                  4.235662879762652,
                  -0.0999280583698249,
                  -1.400333804529775,
                  -0.49156402193149723,
                  2.8844426622403594,
                  7.749750940494382,
                  -21.399344580597027,
                  -165.48949298492653
                ],
                [
                  -0.0999280583698249,
                  0.0023575098238513927,
                  0.03303677420241989,
                  0.011597013187893053,
                  -0.0680499753873045,
                  -0.18283267255129684,
                  0.5048548515375998,
                  3.904239828339958
                ],
                [
                  -1.400333804529775,
                  0.03303677420241989,
                  0.46295817674203493,
                  0.16251381107078658,
                  -0.9536128539553115,
                  -2.562110943840935,
                  7.07474283521597,
                  54.711750651475704
                ],
                [
                  -0.49156402193149723,
                  0.011597013187893053,
                  0.16251381107078658,
                  0.05704778555724192,
                  -0.3347500205590297,
                  -0.8993866720314365,
                  2.4834714629899235,
                  19.205655187466956
                ],
                [
                  2.8844426622403594,
                  -0.0680499753873045,
                  -0.9536128539553115,
                  -0.3347500205590297,
                  1.9642756536418382,
                  5.277500327351819,
                  -14.572732581520963,
                  -112.69663504121867
                ],
                [
                  7.749750940494382,
                  -0.18283267255129684,
                  -2.562110943840935,
                  -0.8993866720314365,
                  5.277500327351819,
                  14.179277564001737,
                  -39.1531610274749,
                  -302.7866924984688
                ],
                [
                  -21.399344580597027,
                  0.5048548515375998,
                  7.07474283521597,
                  2.4834714629899235,
                  -14.572732581520963,
                  -39.1531610274749,
                  108.1134078604452,
                  836.0832260217982
                ],
                [
                  -165.48949298492653,
                  3.904239828339958,
                  54.711750651475704,
                  19.205655187466956,
                  -112.69663504121867,
                  -302.7866924984688,
                  836.0832260217982,
                  6465.758268737073
                ]
              ]
            },
            {
              "basis": 20,
              "constraints": 12,
              "rank": 12,
              "nullity": 8,
              "positiveModes": 8,
              "cutoff": 6,
              "highModes": 2,
              "lambdaMinHigh": 0.009537782083561406,
              "lambdaMaxHigh": 0.1543899487639319,
              "evalRepresenterNorm2": 80.1690618322107,
              "evalCoverNorm2": 934622.0236863281,
              "evalDerivativeCoverNorm2": 136311.42583670348,
              "maxBNormGrid": 98.31261769632972,
              "maxDBNormGrid": 18.5259643549347,
              "maxD2BNormGrid": 45.77989693850677,
              "boundaryCoverNorm2": 9715.522428106311,
              "boundaryDerivativeCoverNorm2": 366.9308025904081,
              "maxJetRangeRelativeDefect": 2.2110466143138383e-80,
              "jetRepresenters": [
                {
                  "deriv": 0,
                  "norm2": 80.1690618322107,
                  "norm": 8.953717765945646,
                  "rangeRelativeDefect": 1.3675188064772776e-80
                },
                {
                  "deriv": 1,
                  "norm2": 173.0186575353662,
                  "norm": 13.153655671917454,
                  "rangeRelativeDefect": 1.6749068402295529e-80
                },
                {
                  "deriv": 2,
                  "norm2": 163.76197829067627,
                  "norm": 12.796951914056576,
                  "rangeRelativeDefect": 1.7442399732146598e-80
                },
                {
                  "deriv": 3,
                  "norm2": 234.72973849124259,
                  "norm": 15.320892222427602,
                  "rangeRelativeDefect": 2.2110466143138383e-80
                },
                {
                  "deriv": 4,
                  "norm2": 15070.493041569407,
                  "norm": 122.76193645250716,
                  "rangeRelativeDefect": 1.4185054933631992e-80
                },
                {
                  "deriv": 5,
                  "norm2": 832.2916723533674,
                  "norm": 28.849465720414432,
                  "rangeRelativeDefect": 1.1128942927746175e-80
                },
                {
                  "deriv": 6,
                  "norm2": 12324601.84587455,
                  "norm": 3510.6412300140482,
                  "rangeRelativeDefect": 1.9297210114718565e-80
                },
                {
                  "deriv": 7,
                  "norm2": 6990251.964432345,
                  "norm": 2643.908463701485,
                  "rangeRelativeDefect": 1.8734911954212654e-80
                }
              ],
              "jetGram": [
                [
                  80.1690618322107,
                  -114.723496650119,
                  -112.83892615912822,
                  134.12360757440405,
                  1069.8247232568312,
                  235.72651413136668,
                  -30478.459924147857,
                  23074.05902371745
                ],
                [
                  -114.723496650119,
                  173.0186575353662,
                  168.08553964749748,
                  -201.49781014092827,
                  -1614.7582771424577,
                  -372.4182991905886,
                  46169.42353744898,
                  -34776.93372160414
                ],
                [
                  -112.83892615912822,
                  168.08553964749748,
                  163.76197829067627,
                  -195.9273562774608,
                  -1568.422875836708,
                  -358.0075825320281,
                  44807.34501885465,
                  -33790.28071463461
                ],
                [
                  134.12360757440405,
                  -201.49781014092827,
                  -195.9273562774608,
                  234.72973849124259,
                  1880.4401125094312,
                  432.30634953268753,
                  -53751.96535736242,
                  40503.102149269354
                ],
                [
                  1069.8247232568312,
                  -1614.7582771424577,
                  -1568.422875836708,
                  1880.4401125094312,
                  15070.493041569407,
                  3478.1149271879726,
                  -430921.37592039304,
                  324565.03512045176
                ],
                [
                  235.72651413136668,
                  -372.4182991905886,
                  -358.0075825320281,
                  432.30634953268753,
                  3478.1149271879726,
                  832.2916723533674,
                  -99748.06958930177,
                  74816.77180631418
                ],
                [
                  -30478.459924147857,
                  46169.42353744898,
                  44807.34501885465,
                  -53751.96535736242,
                  -430921.37592039304,
                  -99748.06958930177,
                  12324601.84587455,
                  -9279624.752240581
                ],
                [
                  23074.05902371745,
                  -34776.93372160414,
                  -33790.28071463461,
                  40503.102149269354,
                  324565.03512045176,
                  74816.77180631418,
                  -9279624.752240581,
                  6990251.964432345
                ]
              ]
            },
            {
              "basis": 22,
              "constraints": 13,
              "rank": 12,
              "nullity": 10,
              "positiveModes": 10,
              "cutoff": 6,
              "highModes": 4,
              "lambdaMinHigh": 5.2627140629946134e-05,
              "lambdaMaxHigh": 0.15438995092429375,
              "evalRepresenterNorm2": 2029.6204783009384,
              "evalCoverNorm2": 23661596.573438752,
              "evalDerivativeCoverNorm2": 3450962.939838409,
              "maxBNormGrid": 384.6833256857829,
              "maxDBNormGrid": 52.3661346753979,
              "maxD2BNormGrid": 185.00393380061473,
              "boundaryCoverNorm2": 148535.74992824855,
              "boundaryDerivativeCoverNorm2": 3015.10137519322,
              "maxJetRangeRelativeDefect": 1.2851186279135082e-78,
              "jetRepresenters": [
                {
                  "deriv": 0,
                  "norm2": 2029.6204783009384,
                  "norm": 45.051309396075695,
                  "rangeRelativeDefect": 2.8301168660800044e-79
                },
                {
                  "deriv": 1,
                  "norm2": 454011.6105489997,
                  "norm": 673.8038368464516,
                  "rangeRelativeDefect": 8.663489642016322e-79
                },
                {
                  "deriv": 2,
                  "norm2": 7769555.840406825,
                  "norm": 2787.39230113144,
                  "rangeRelativeDefect": 1.157152274917377e-78
                },
                {
                  "deriv": 3,
                  "norm2": 1064337.7625693805,
                  "norm": 1031.6674670500086,
                  "rangeRelativeDefect": 4.393070326895982e-79
                },
                {
                  "deriv": 4,
                  "norm2": 502375839.26212686,
                  "norm": 22413.74219674454,
                  "rangeRelativeDefect": 1.1309569134028585e-78
                },
                {
                  "deriv": 5,
                  "norm2": 8965052.867962087,
                  "norm": 2994.1698128132425,
                  "rangeRelativeDefect": 2.334331929868471e-79
                },
                {
                  "deriv": 6,
                  "norm2": 13718228373.975428,
                  "norm": 117124.84097737519,
                  "rangeRelativeDefect": 1.0622264003504158e-78
                },
                {
                  "deriv": 7,
                  "norm2": 330230185620.1378,
                  "norm": 574656.58059413,
                  "rangeRelativeDefect": 1.2851186279135082e-78
                }
              ],
              "jetGram": [
                [
                  2029.6204783009384,
                  25375.292944043093,
                  -114293.98482532799,
                  -26765.985615048936,
                  916634.3680454608,
                  30566.78301384771,
                  -4619265.887419869,
                  -24227432.231495522
                ],
                [
                  25375.292944043093,
                  454011.6105489997,
                  -1853925.371137813,
                  -642087.7120535126,
                  14919118.184784384,
                  1421720.1606412889,
                  -78673172.25134628,
                  -376363890.48690504
                ],
                [
                  -114293.98482532799,
                  -1853925.371137813,
                  7769555.840406825,
                  2446677.0919427816,
                  -62474751.89808563,
                  -4864503.361036958,
                  325379672.26452905,
                  1597065169.9103894
                ],
                [
                  -26765.985615048936,
                  -642087.7120535126,
                  2446677.0919427816,
                  1064337.7625693805,
                  -19728891.190956634,
                  -2850420.89157577,
                  107644663.0848864,
                  479035120.60728276
                ],
                [
                  916634.3680454608,
                  14919118.184784384,
                  -62474751.89808563,
                  -19728891.190956634,
                  502375839.26212686,
                  39358246.39278528,
                  -2617396625.512719,
                  -12837649214.20823
                ],
                [
                  30566.78301384771,
                  1421720.1606412889,
                  -4864503.361036958,
                  -2850420.89157577,
                  39358246.39278528,
                  8965052.867962087,
                  -226931206.2119808,
                  -892610833.4408854
                ],
                [
                  -4619265.887419869,
                  -78673172.25134628,
                  325379672.26452905,
                  107644663.0848864,
                  -2617396625.512719,
                  -226931206.2119808,
                  13718228373.975428,
                  66463312188.25064
                ],
                [
                  -24227432.231495522,
                  -376363890.48690504,
                  1597065169.9103894,
                  479035120.60728276,
                  -12837649214.20823,
                  -892610833.4408854,
                  66463312188.25064,
                  330230185620.1378
                ]
              ]
            }
          ],
          "maxEvalRepresenterNorm2": 2029.6204783009384,
          "maxEvalCoverNorm2": 23661596.573438752,
          "maxBoundaryCoverNorm2": 148535.74992824855,
          "maxBoundaryDerivativeCoverNorm2": 3015.10137519322,
          "maxJetRangeRelativeDefect": 1.2851186279135082e-78
        },
        "closedTraceHardyGreenCertificate": {
          "basis": 20,
          "constraints": 12,
          "cutoff": 6,
          "highModes": 2,
          "lambdaMinHigh": 0.009537782083561406,
          "maxRangeRelativeDefect": 1.6764349414129878e-80,
          "maxFiniteEConstant": 934694.7045980463,
          "maxFiniteDEConstant": 131172.6997163925,
          "rows": [
            {
              "u": 0.08,
              "EConstant": 934694.7045980463,
              "dEConstant": 38630.085866932364,
              "combinedSumConstant": 973324.7904649787,
              "maxRangeRelativeDefect": 1.576033466847222e-80
            },
            {
              "u": 0.3,
              "EConstant": 831399.8380072507,
              "dEConstant": 89452.2143422963,
              "combinedSumConstant": 920852.0523495469,
              "maxRangeRelativeDefect": 1.6034029290831172e-80
            },
            {
              "u": 0.52,
              "EConstant": 703078.5145031781,
              "dEConstant": 131172.6997163925,
              "combinedSumConstant": 834251.2142195706,
              "maxRangeRelativeDefect": 1.6764349414129878e-80
            }
          ]
        },
        "globalTraceSourceObservability": {
          "bases": [
            18,
            20,
            22
          ],
          "sourceGrid": 9,
          "constraintRule": "ratio-floor",
          "constraintRatio": 0.625,
          "maxHighFullFrac": 1.1943753378212075e-06,
          "maxDerivativeHighFullFrac": 1.2016772286010286e-06,
          "maxHighConstant": 23557347.756720368,
          "maxDerivativeHighConstant": 3313761.7062034267,
          "rows": [
            {
              "basis": 18,
              "constraints": 11,
              "traceMin": 0.02,
              "traceMax": 0.545,
              "rank": 11,
              "nullity": 7,
              "positiveModes": 7,
              "cutoff": 6,
              "highModes": 1,
              "lambdaMinA": 1.0052047510858405e-08,
              "lambdaMaxA": 0.1543899343461991,
              "lambdaMinHigh": 0.1543899343461991,
              "lambdaMaxHigh": 0.1543899343461991,
              "maxHighConstant": 49336.03299798124,
              "maxDerivativeHighConstant": 6927.471863561486,
              "maxFullConstant": 219604805171.44058,
              "maxDerivativeFullConstant": 30671917688.367966,
              "maxHighFullFrac": 2.2465825808987055e-07,
              "maxDerivativeHighFullFrac": 2.2669608772815625e-07,
              "worstU": 0.08,
              "worstDerivativeU": 0.52,
              "rows": [
                {
                  "u": 0.08,
                  "pStar": -107.41740043918624,
                  "dPStar": 21.951179400950767,
                  "highConstant": 49336.03299798124,
                  "fullConstant": 219604805171.44058,
                  "highFullFrac": 2.2465825808987055e-07,
                  "dHighConstant": 2041.0627441559438,
                  "dFullConstant": 9003519931.06954,
                  "dHighFullFrac": 2.2669608772815625e-07,
                  "highRowSize": 7616.986895460235,
                  "fullRowSize": 26048.37157222088,
                  "dHighRowSize": 315.1195430667091,
                  "dFullRowSize": 1075.9276231925385
                },
                {
                  "u": 0.135,
                  "pStar": -106.11998375896385,
                  "dPStar": 25.18945454247282,
                  "highConstant": 48162.62148455866,
                  "fullConstant": 214411304426.4897,
                  "highFullFrac": 2.2462724907804977e-07,
                  "dHighConstant": 2687.625135872668,
                  "dFullConstant": 11863652719.990736,
                  "dHighFullFrac": 2.26542802567367e-07,
                  "highRowSize": 7435.823968941849,
                  "fullRowSize": 25429.57495955784,
                  "dHighRowSize": 414.94226827457567,
                  "dFullRowSize": 1416.87166362788
                },
                {
                  "u": 0.19,
                  "pStar": -104.6509759828204,
                  "dPStar": 28.187073502008676,
                  "highConstant": 46849.92533287196,
                  "fullConstant": 208597863315.05518,
                  "highFullFrac": 2.2459446414420992e-07,
                  "dHighConstant": 3365.9154201010274,
                  "dFullConstant": 14866295005.53032,
                  "dHighFullFrac": 2.2641252705189115e-07,
                  "highRowSize": 7233.156896266431,
                  "fullRowSize": 24737.239469597083,
                  "dHighRowSize": 519.6634607242568,
                  "dFullRowSize": 1774.5948607346008
                },
                {
                  "u": 0.245,
                  "pStar": -103.02418447121939,
                  "dPStar": 30.924222175913027,
                  "highConstant": 45416.403321312486,
                  "fullConstant": 202246184513.79834,
                  "highFullFrac": 2.245600006274231e-07,
                  "dHighConstant": 4052.405157553934,
                  "dFullConstant": 17907316380.76867,
                  "dHighFullFrac": 2.2629885301551728e-07,
                  "highRowSize": 7011.835527017933,
                  "fullRowSize": 23981.09952233072,
                  "dHighRowSize": 625.6505662189504,
                  "dFullRowSize": 2136.689367326252
                },
                {
                  "u": 0.3,
                  "pStar": -101.25434857934155,
                  "dPStar": 33.38680926995107,
                  "highConstant": 43881.24137648879,
                  "fullConstant": 195441237488.86563,
                  "highFullFrac": 2.245239640328655e-07,
                  "dHighConstant": 4724.964530404068,
                  "dFullConstant": 20888696322.193245,
                  "dHighFullFrac": 2.2619719572369951e-07,
                  "highRowSize": 6774.82197514582,
                  "fullRowSize": 23171.27420866035,
                  "dHighRowSize": 729.4869636372035,
                  "dFullRowSize": 2491.4831012453856
                },
                {
                  "u": 0.355,
                  "pStar": -99.35682874035949,
                  "dPStar": 35.5663016341222,
                  "highConstant": 42263.838420234766,
                  "fullConstant": 188268980212.99377,
                  "highFullFrac": 2.244864680969778e-07,
                  "dHighConstant": 5363.794359979579,
                  "dFullConstant": 23722657597.62798,
                  "dHighFullFrac": 2.2610427764703324e-07,
                  "highRowSize": 6525.111238918413,
                  "fullRowSize": 22317.99608205607,
                  "dHighRowSize": 828.1158590837601,
                  "dFullRowSize": 2828.531438744368
                },
                {
                  "u": 0.41,
                  "pStar": -97.34730856291115,
                  "dPStar": 37.459419203492665,
                  "highConstant": 40583.33700536733,
                  "fullConstant": 180814277951.93304,
                  "highFullFrac": 2.244476346948433e-07,
                  "dHighConstant": 5952.111661120264,
                  "dFullConstant": 26334712000.85028,
                  "dHighFullFrac": 2.260177237149237e-07,
                  "highRowSize": 6265.658735808333,
                  "fullRowSize": 21431.363541550876,
                  "dHighRowSize": 918.9461285816036,
                  "dFullRowSize": 3138.979004074694
                },
                {
                  "u": 0.465,
                  "pStar": -95.24151704721294,
                  "dPStar": 39.06771260142718,
                  "highConstant": 38858.212491667015,
                  "fullConstant": 173159080198.27515,
                  "highFullFrac": 2.2440759356755973e-07,
                  "dHighConstant": 6476.576818729188,
                  "dFullConstant": 28665564645.011326,
                  "dHighFullFrac": 2.2593578389031689e-07,
                  "highRowSize": 5999.316875399124,
                  "fullRowSize": 20521.124063219788,
                  "dHighRowSize": 999.9182698317143,
                  "dFullRowSize": 3415.7852491209787
                },
                {
                  "u": 0.52,
                  "pStar": -93.05497666991295,
                  "dPStar": 40.39704932949021,
                  "highConstant": 37105.92991498883,
                  "fullConstant": 165380896505.54227,
                  "highFullFrac": 2.243664818550874e-07,
                  "dHighConstant": 6927.471863561486,
                  "dFullConstant": 30671917688.367966,
                  "dHighFullFrac": 2.2585714835132935e-07,
                  "highRowSize": 5728.782083429791,
                  "fullRowSize": 19596.493112860946,
                  "dHighRowSize": 1069.5319262003993,
                  "dFullRowSize": 3653.818797209867
                }
              ]
            },
            {
              "basis": 20,
              "constraints": 12,
              "traceMin": 0.02,
              "traceMax": 0.545,
              "rank": 12,
              "nullity": 8,
              "positiveModes": 8,
              "cutoff": 6,
              "highModes": 2,
              "lambdaMinA": 4.410511401245314e-11,
              "lambdaMaxA": 0.1543899487639319,
              "lambdaMinHigh": 0.009537782083561406,
              "lambdaMaxHigh": 0.1543899487639319,
              "maxHighConstant": 934694.7045980463,
              "maxDerivativeHighConstant": 131172.6997163925,
              "maxFullConstant": 782580379048.2869,
              "maxDerivativeFullConstant": 109381008518.1612,
              "maxHighFullFrac": 1.1943753378212075e-06,
              "maxDerivativeHighFullFrac": 1.2016772286010286e-06,
              "worstU": 0.08,
              "worstDerivativeU": 0.52,
              "rows": [
                {
                  "u": 0.08,
                  "pStar": -107.41740043918624,
                  "dPStar": 21.951179400950767,
                  "highConstant": 934694.7045980463,
                  "fullConstant": 782580379048.2869,
                  "highFullFrac": 1.1943753378212075e-06,
                  "dHighConstant": 38630.085866932364,
                  "dFullConstant": 32146806935.756638,
                  "dHighFullFrac": 1.2016772286010286e-06,
                  "highRowSize": 16067.842703159009,
                  "fullRowSize": 38895.64874530573,
                  "dHighRowSize": 664.3669928536626,
                  "dFullRowSize": 1605.1668817146556
                },
                {
                  "u": 0.135,
                  "pStar": -106.11998375896385,
                  "dPStar": 25.18945454247282,
                  "highConstant": 912476.2851755983,
                  "fullConstant": 764073033215.864,
                  "highFullFrac": 1.1942265274500374e-06,
                  "dHighConstant": 50871.8821056023,
                  "dFullConstant": 42342579432.53451,
                  "dHighFullFrac": 1.2014355947931265e-06,
                  "highRowSize": 15685.802479875443,
                  "fullRowSize": 37972.370313865635,
                  "dHighRowSize": 874.8677874676362,
                  "dFullRowSize": 2113.865875857225
                },
                {
                  "u": 0.19,
                  "pStar": -104.6509759828204,
                  "dPStar": 28.187073502008676,
                  "highConstant": 887619.0252534894,
                  "fullConstant": 743355760298.5779,
                  "highFullFrac": 1.194070285938144e-06,
                  "dHighConstant": 63715.43322609661,
                  "dFullConstant": 53045904722.96361,
                  "dHighFullFrac": 1.2011376478326733e-06,
                  "highRowSize": 15258.399536708253,
                  "fullRowSize": 36939.28265317668,
                  "dHighRowSize": 1095.7080237530483,
                  "dFullRowSize": 2647.643183303856
                },
                {
                  "u": 0.245,
                  "pStar": -103.02418447121939,
                  "dPStar": 30.924222175913027,
                  "highConstant": 860472.4407381975,
                  "fullConstant": 720719726024.6212,
                  "highFullFrac": 1.1939071592842765e-06,
                  "dHighConstant": 76715.2319544933,
                  "dFullConstant": 63885657890.54084,
                  "dHighFullFrac": 1.2008208804225533e-06,
                  "highRowSize": 14791.643706669896,
                  "fullRowSize": 35810.91029972724,
                  "dHighRowSize": 1319.2273022196189,
                  "dFullRowSize": 3187.9853973506033
                },
                {
                  "u": 0.3,
                  "pStar": -101.25434857934155,
                  "dPStar": 33.38680926995107,
                  "highConstant": 831399.8380072507,
                  "fullConstant": 696467756600.2439,
                  "highFullFrac": 1.1937377288873614e-06,
                  "dHighConstant": 89452.2143422963,
                  "dFullConstant": 74512490489.94716,
                  "dHighFullFrac": 1.2004995907949787e-06,
                  "highRowSize": 14291.781778264884,
                  "fullRowSize": 34602.352920679594,
                  "dHighRowSize": 1538.2202116738054,
                  "dFullRowSize": 3717.475296669036
                },
                {
                  "u": 0.355,
                  "pStar": -99.35682874035949,
                  "dPStar": 35.5663016341222,
                  "highConstant": 800768.5772732252,
                  "fullConstant": 670906218184.9398,
                  "highFullFrac": 1.1935626106426814e-06,
                  "dHighConstant": 101551.41175118386,
                  "dFullConstant": 84613561004.6232,
                  "dHighFullFrac": 1.2001789139407002e-06,
                  "highRowSize": 13765.1300856077,
                  "fullRowSize": 33328.88058622828,
                  "dHighRowSize": 1746.2398178005128,
                  "dFullRowSize": 4220.525651844073
                },
                {
                  "u": 0.41,
                  "pStar": -97.34730856291115,
                  "dPStar": 37.459419203492665,
                  "highConstant": 768941.183459027,
                  "fullConstant": 644337598101.1896,
                  "highFullFrac": 1.1933824531193493e-06,
                  "dHighConstant": 112694.93765039758,
                  "dFullConstant": 93923389449.29352,
                  "dHighFullFrac": 1.1998602085291891e-06,
                  "highRowSize": 13217.921675564714,
                  "fullRowSize": 32005.564214647715,
                  "dHighRowSize": 1937.8209229459558,
                  "dFullRowSize": 4683.9192696541
                },
                {
                  "u": 0.465,
                  "pStar": -95.24151704721294,
                  "dPStar": 39.06771260142718,
                  "highConstant": 736267.565071797,
                  "fullConstant": 617054005553.6813,
                  "highFullFrac": 1.1931979347758155e-06,
                  "dHighConstant": 122630.08308630624,
                  "dFullConstant": 102230644469.16284,
                  "dHighFullFrac": 1.1995432849227196e-06,
                  "highRowSize": 12656.172530137983,
                  "fullRowSize": 30646.952023202008,
                  "dHighRowSize": 2108.619212806523,
                  "dFullRowSize": 5097.1458460336335
                },
                {
                  "u": 0.52,
                  "pStar": -93.05497666991295,
                  "dPStar": 40.39704932949021,
                  "highConstant": 703078.5145031781,
                  "fullConstant": 589331737216.9569,
                  "highFullFrac": 1.1930097602131113e-06,
                  "dHighConstant": 131172.6997163925,
                  "dFullConstant": 109381008518.1612,
                  "dHighFullFrac": 1.1992273749662228e-06,
                  "highRowSize": 12085.56982523443,
                  "fullRowSize": 29266.79920129779,
                  "dHighRowSize": 2255.469370271968,
                  "dFullRowSize": 5452.54302870079
                }
              ]
            },
            {
              "basis": 22,
              "constraints": 13,
              "traceMin": 0.02,
              "traceMax": 0.545,
              "rank": 12,
              "nullity": 10,
              "positiveModes": 10,
              "cutoff": 6,
              "highModes": 4,
              "lambdaMinA": 1.2942067999489451e-13,
              "lambdaMaxA": 0.15438995092429375,
              "lambdaMinHigh": 5.2627140629946134e-05,
              "lambdaMaxHigh": 0.15438995092429375,
              "maxHighConstant": 23557347.756720368,
              "maxDerivativeHighConstant": 3313761.7062034267,
              "maxFullConstant": 42786160637925.47,
              "maxDerivativeFullConstant": 5995782091243.506,
              "maxHighFullFrac": 5.505833523150764e-07,
              "maxDerivativeHighFullFrac": 5.535711408913382e-07,
              "worstU": 0.08,
              "worstDerivativeU": 0.52,
              "rows": [
                {
                  "u": 0.08,
                  "pStar": -107.41740043918624,
                  "dPStar": 21.951179400950767,
                  "highConstant": 23557347.756720368,
                  "fullConstant": 42786160637925.47,
                  "highFullFrac": 5.505833523150764e-07,
                  "dHighConstant": 979447.3387414846,
                  "dFullConstant": 1769389904069.3276,
                  "dHighFullFrac": 5.535508801586946e-07,
                  "highRowSize": 19031.94900865392,
                  "fullRowSize": 40814.71026652943,
                  "dHighRowSize": 786.8167656589278,
                  "dFullRowSize": 1683.226441550303
                },
                {
                  "u": 0.135,
                  "pStar": -106.11998375896385,
                  "dPStar": 25.18945454247282,
                  "highConstant": 22996435.59154994,
                  "fullConstant": 41772860388050.17,
                  "highFullFrac": 5.505113937117042e-07,
                  "dHighConstant": 1288668.6262000096,
                  "dFullConstant": 2327918728069.976,
                  "dHighFullFrac": 5.535711408913382e-07,
                  "highRowSize": 18579.496967342402,
                  "fullRowSize": 39846.146682752384,
                  "dHighRowSize": 1036.1139647158004,
                  "dFullRowSize": 2216.843449859681
                },
                {
                  "u": 0.19,
                  "pStar": -104.6509759828204,
                  "dPStar": 28.187073502008676,
                  "highConstant": 22369029.266414713,
                  "fullConstant": 40638694067308.9,
                  "highFullFrac": 5.504367150520493e-07,
                  "dHighConstant": 1612949.4013803522,
                  "dFullConstant": 2914045978072.2524,
                  "dHighFullFrac": 5.535085628427101e-07,
                  "highRowSize": 18073.314032645598,
                  "fullRowSize": 38762.35846114329,
                  "dHighRowSize": 1297.659688755861,
                  "dFullRowSize": 2776.7921859751063
                },
                {
                  "u": 0.245,
                  "pStar": -103.02418447121939,
                  "dPStar": 30.924222175913027,
                  "highConstant": 21683952.770054072,
                  "fullConstant": 39399602922526.4,
                  "highFullFrac": 5.503596778041753e-07,
                  "dHighConstant": 1941042.8624309807,
                  "dFullConstant": 3507457727111.1787,
                  "dHighFullFrac": 5.5340449221313e-07,
                  "highRowSize": 17520.51770526617,
                  "fullRowSize": 37578.58251944325,
                  "dHighRowSize": 1562.3816617314967,
                  "dFullRowSize": 3343.6513556244213
                },
                {
                  "u": 0.3,
                  "pStar": -101.25434857934155,
                  "dPStar": 33.38680926995107,
                  "highConstant": 20950376.055523433,
                  "fullConstant": 38072165102679.89,
                  "highFullFrac": 5.50280657772435e-07,
                  "dHighConstant": 2262375.4049327974,
                  "dFullConstant": 4089038736938.2114,
                  "dHighFullFrac": 5.532780564037449e-07,
                  "highRowSize": 16928.506215490186,
                  "fullRowSize": 36310.65951474235,
                  "dHighRowSize": 1821.7463280827092,
                  "dFullRowSize": 3899.148725142178
                },
                {
                  "u": 0.355,
                  "pStar": -99.35682874035949,
                  "dPStar": 35.5663016341222,
                  "highConstant": 20177569.358621135,
                  "fullConstant": 36673151201521.555,
                  "highFullFrac": 5.502000427436401e-07,
                  "dHighConstant": 2567491.515901334,
                  "dFullConstant": 4641677569364.373,
                  "dHighFullFrac": 5.5313870417176e-07,
                  "highRowSize": 16304.760252722554,
                  "fullRowSize": 34974.60924438677,
                  "dHighRowSize": 2068.1182883764445,
                  "dFullRowSize": 4426.931017459414
                },
                {
                  "u": 0.41,
                  "pStar": -97.34730856291115,
                  "dPStar": 37.459419203492665,
                  "highConstant": 19374678.97867078,
                  "fullConstant": 35219118248731.44,
                  "highFullFrac": 5.501182295888012e-07,
                  "dHighConstant": 2848380.6731036324,
                  "dFullConstant": 5150859399099.944,
                  "dHighFullFrac": 5.529913461822226e-07,
                  "highRowSize": 15656.66195646419,
                  "fullRowSize": 33586.242934787384,
                  "dHighRowSize": 2295.0247244250254,
                  "dFullRowSize": 4913.130576874854
                },
                {
                  "u": 0.465,
                  "pStar": -95.24151704721294,
                  "dPStar": 39.06771260142718,
                  "highConstant": 18550531.08386508,
                  "fullConstant": 33726054058869.977,
                  "highFullFrac": 5.500356208729458e-07,
                  "dHighConstant": 3098680.6319373487,
                  "dFullConstant": 5605036159339.214,
                  "dHighFullFrac": 5.528386514999141e-07,
                  "highRowSize": 14991.33647272322,
                  "fullRowSize": 32160.823784544653,
                  "dHighRowSize": 2497.320212108214,
                  "dFullRowSize": 5346.718898062105
                },
                {
                  "u": 0.52,
                  "pStar": -93.05497666991295,
                  "dPStar": 40.39704932949021,
                  "highConstant": 17713467.90390585,
                  "fullConstant": 32209079884070.26,
                  "highFullFrac": 5.499526210516324e-07,
                  "dHighConstant": 3313761.7062034267,
                  "dFullConstant": 5995782091243.506,
                  "dHighFullFrac": 5.526821448436201e-07,
                  "highRowSize": 14315.519606905538,
                  "fullRowSize": 30712.783334337295,
                  "dHighRowSize": 2671.2555682955217,
                  "dFullRowSize": 5719.654770665441
                }
              ]
            }
          ]
        },
        "traceToSourceKernelProfile": {
          "basis": 18,
          "activeDim": 2,
          "traceRankOnActive": 2,
          "coefficientOperator": 201.41472755309704,
          "coefficientFrobenius": 201.4153360841363,
          "rangeResidualRelative": 2.411802011191882e-69,
          "maxKernelL1Grid": 10.123421443051713
        },
        "continuumTraceToSourceGreenKernel": {
          "finiteActiveRangeIdentityStatus": {
            "label": "finite active range identity",
            "closed": true,
            "status": "closed",
            "reason": "Finite active blocks satisfy E_active=C_N R_N to roundoff."
          },
          "sampledGreenDensityStatus": {
            "label": "sampled Green density construction",
            "closed": true,
            "status": "closed",
            "reason": "Rows of C_N define sampled kernels K_N(a_i)=C_{N,i}/w_i."
          },
          "traceGridDensityStabilityStatus": {
            "label": "trace-grid density stability",
            "closed": true,
            "status": "closed",
            "reason": "Weighted density norms remain stable under trace refinement; this is finite evidence for an L2 trace-dual kernel."
          },
          "lagrangeAdjointIdentityStatus": {
            "label": "Lagrange adjoint identity",
            "closed": true,
            "status": "closed",
            "reason": "The symbolic identity D_a B_P[h,f]=h Lambda_a(f)-f P^*h is verified to roundoff for source test rows."
          },
          "continuumAdjointGreenProblemStatus": {
            "label": "continuum adjoint Green problem",
            "closed": false,
            "status": "open",
            "reason": "The endpoint part is now reduced exactly to the fundamental-matrix Fredholm range condition.  The remaining global input is active trace range compatibility plus the source-inactive Hardy/Schur tail."
          },
          "sampledKernelAdjointIbpStatus": {
            "label": "sampled-kernel adjoint IBP diagnostic",
            "closed": false,
            "status": "open",
            "reason": "Differentiating the coarse pseudoinverse kernel K_N does not solve the adjoint boundary problem; this diagnostic is expected to stay open until K_u is constructed by the BVP itself."
          },
          "sampledMaxDensityL2": 349.5148388300294,
          "sampledMaxPointDensity": 1208.8906326905274,
          "refinementMaxWeightedDensityL2": 339.2666879549353,
          "refinementDensityL2RelativeSpread": 0.02494134192640493,
          "remainingAnalyticGap": "Prove the closed-trace active unique-continuation lemma in the continuum space and combine it with the source-inactive high-frequency Hardy/Schur tail.  The endpoint ODE step itself is now an exact fundamental-matrix/Fredholm reduction.",
          "adjointBoundaryDiagnostic": {
            "activeDim": 2,
            "activeRangeFrobeniusRelative": 3.6497508373774743e-69,
            "maxIbpRelativeDefectOnActive": 2481283.9499772824,
            "maxActiveRangeRelativeDefect": 5.611776968403598e-69,
            "maxEtaL2Trap": 15220911281.570494,
            "status": {
              "finiteActiveRangeClosed": true,
              "discreteAdjointIbpSmall": false,
              "continuumAdjointGreenClosed": false
            },
            "interpretation": "Finite-difference P^*K_N and endpoint concomitant diagnostic. Large IBP defects indicate the need for an analytic adjoint Green construction rather than differentiating coarse sampled kernel coefficients."
          },
          "regularizedBvpDiagnostic": {
            "traceSamples": 11,
            "kernelDegree": 6,
            "smoothOrder": 4,
            "smoothWeight": 1e-06,
            "regularizedRangeResidualRelative": 9.797678374642602e-70,
            "regularizedMaxIbpRelativeDefectOnActive": 114872.78146325507,
            "regularizedMaxEtaL2": 1670341309.4242046,
            "regularizedMaxDensityL2": 352.92225680739114,
            "exactActiveRangeOnRegularizedKernel": {
              "label": "exact active range on regularized kernels",
              "closed": true,
              "status": "closed",
              "reason": "Polynomial densities solve the two active moment equations."
            },
            "regularizedAdjointIbpSmall": {
              "label": "regularized adjoint IBP diagnostic",
              "closed": false,
              "status": "open",
              "reason": "Tests whether the smooth finite kernels behave like solutions of P^*K=eta with matched endpoint concomitant."
            },
            "continuumBvpClosed": {
              "label": "continuum adjoint BVP compactness",
              "closed": false,
              "status": "open",
              "reason": "Still requires a uniform norm bound and convergence of the regularized kernels in the trace-dual topology."
            }
          },
          "jumpConditionCertificate": {
            "detJumpMatrix": 1.5426921318086964e-43,
            "inverseJumpMatrixFrobenius": 6.551722209743162e+16,
            "maxJumpSolveResidual": 0.0,
            "maxJumpNorm": 24129022.585577942,
            "distributionalSourceJumpLaw": true,
            "jumpMatrixInvertible": true,
            "interiorSourceSolved": true,
            "endpointConcomitantSolved": false
          },
          "endpointSelectionCertificate": {
            "odeSamples": 11,
            "stencilWidth": 9,
            "activeDim": 2,
            "endpointMapRank": 1,
            "endpointMapGramEigenvalues": [
              7704285951341.06,
              5.4067419733088444e+51
            ],
            "endpointMapFrobenius": 7.353055129202313e+25,
            "flowLeftFrobenius": 1.188781293335011e+29,
            "flowRightFrobenius": 4325523736.791256,
            "maxEndpointResidualNorm": 4.904278671755176e-27,
            "maxSelectedZNorm": 2.791429837949141,
            "activeEndpointMapFullRowRank": {
              "label": "active endpoint map full row rank",
              "closed": false,
              "status": "open",
              "reason": "Sufficient but not necessary; the diagnostic may still close if the actual endpoint right-hand sides lie in Range(M)."
            },
            "actualEndpointRhsInRange": {
              "label": "actual endpoint RHS in Range(M)",
              "closed": true,
              "status": "closed",
              "reason": "For the actual source rows, the endpoint vectors b(d) are in the finite endpoint-map range."
            },
            "activeEndpointKilled": {
              "label": "active endpoint concomitant killed",
              "closed": true,
              "status": "closed",
              "reason": "Minimum-norm z solves Mz=-b(d) on the active two-dimensional source space."
            },
            "uniformTraceDualBoundClosed": {
              "label": "uniform trace-dual bound",
              "closed": false,
              "status": "open",
              "reason": "Still needs a rigorous continuum bound for the exact fundamental matrix and M^+ over the source window."
            }
          },
          "endpointRangeTheorem": {
            "exactEndpointReductionClosed": true,
            "unconditionalContinuumEndpointClosed": false,
            "exactFundamentalMatrixEndpointMapStatus": {
              "label": "exact fundamental-matrix endpoint map",
              "closed": true,
              "status": "closed",
              "reason": "For analytic coefficients with nonzero leading coefficient, P^*K=0 has a unique fundamental matrix Phi(a,t), and the endpoint concomitant is exactly Pi_delta Beta_z=Mz+b(d)."
            },
            "endpointFredholmRangeAlternativeStatus": {
              "label": "endpoint Fredholm range alternative",
              "closed": true,
              "status": "closed",
              "reason": "The exact endpoint equation Mz=-b(d) is solvable iff b(d) is orthogonal to ker(M^T); the minimum-norm solution is z=-M^+b(d)."
            },
            "uniformTraceDualBoundFromCompactnessStatus": {
              "label": "uniform trace-dual bound from compactness",
              "closed": true,
              "status": "closed",
              "reason": "If rank M is constant, b(d_u) lies in Range(M), and d_u is continuous on the compact source window, then ||M^+b(d_u)|| and the trace-dual norm of the piecewise homogeneous Green solution are uniformly bounded."
            },
            "finiteEndpointCompatibilityEvidenceStatus": {
              "label": "finite endpoint compatibility evidence",
              "closed": true,
              "status": "closed",
              "reason": "The sampled-flow diagnostic has rank one on the two active modes, but the actual endpoint right-hand sides lie in its range and are killed by the Moore-Penrose z choice."
            },
            "continuumActiveRangeCompatibilityStatus": {
              "label": "continuum active range compatibility",
              "closed": false,
              "status": "open",
              "reason": "Open until the compactness/Mosco passage and the closed-trace active unique-continuation lemma are proved."
            },
            "finiteEndpointResidual": 4.904278671755176e-27,
            "finiteSelectedZNorm": 2.791429837949141,
            "finiteEndpointRank": 1,
            "finiteEndpointActiveDim": 2
          },
          "activeTraceRangeTheorem": {
            "hilbertAnnihilatorRangeCriterionStatus": {
              "label": "Hilbert annihilator range criterion",
              "closed": true,
              "status": "closed",
              "reason": "For a densely defined closed trace map R between Hilbert spaces, closure Ran(R^*)=(ker R)^perp.  Hence E_active factors through the interval trace iff ker R is annihilated by E_active."
            },
            "finiteActiveBlockFactorizationStatus": {
              "label": "finite active block factorization",
              "closed": true,
              "status": "closed",
              "reason": "Current Galerkin active blocks satisfy E_active=C_sample R_global to roundoff.  This is finite evidence for, not proof of, the continuum annihilator condition."
            },
            "compactnessContradictionReductionStatus": {
              "label": "compactness contradiction reduction",
              "closed": true,
              "status": "closed",
              "reason": "Failure of ker R subset ker E_active is equivalent to an A-normalized sequence with R f_n -> 0 and active source bounded below.  The high-block elliptic/Mosco theorem is the compactness mechanism needed to pass such a sequence to a continuum limit."
            },
            "closedTraceActiveUniqueContinuationStatus": {
              "label": "closed-trace active unique continuation",
              "closed": false,
              "status": "open",
              "reason": "Closed if the exact Green annihilation implication is available for every scalar active source row.  The remaining open part is endpoint/Fredholm compatibility in the continuum exact Green BVP."
            },
            "continuumActiveTraceRangeCompatibilityStatus": {
              "label": "continuum active trace range compatibility",
              "closed": false,
              "status": "open",
              "reason": "Open until the compactness/Mosco passage and the closed-trace active unique-continuation lemma are proved."
            },
            "finiteMaxRangeResidualRelative": 2.2573105615124823e-69,
            "finiteMaxCoefficientOperator": 201.41472755309704,
            "observedGammaFloor": 293.11515100909196,
            "remainingAnalyticGap": "Prove endpoint/Fredholm compatibility for the exact continuum Green BVP without appealing to sampled active range inclusion.  Equivalently, show every homogeneous endpoint obstruction annihilates the actual active source rows, using the Volterra/Sturm structure."
          }
        },
        "sourceInactiveTailCertificate": {
          "sourceGrid": 257,
          "activeCount": 2,
          "continuumErrorBound": 188255959.690444,
          "worstContinuumInactiveFracUpper": 0.0013454526382754603,
          "worstActiveTraceKernelSourceFrac": 0.0,
          "worstFullTraceKernelSourceFrac": 1.2741783685754282e-07,
          "sampledActiveKernelExclusionPasses": true,
          "finiteBudgetDiagnosticPasses": true,
          "globalSchurTailTheoremClosed": false
        },
        "formalConstruction": [
          "Let H_hi be the A-Hilbert completion of the high block after global trace closure and finite low/mid removal.",
          "Define ell_{u,1}(f)=B_P[h_u,f](s0) and ell_{u,2}(f)=(P^*h_u)(s0)f(s0).",
          "If ell_{u,k} is A-bounded on H_hi, set g_{u,k}=J_A^{-1}ell_{u,k}, where J_A:H_hi->H_hi^* is the Riesz map induced by <.,.>_A.",
          "The active part is to be represented by an interval kernel K_u with P_delta E_u=integral K_u(a)Lambda_a da; it vanishes on ker R_global.",
          "The inactive part is bounded by the high-frequency Hardy/Schur tail. Hence the restricted source rows have Riesz representers in H_hi.",
          "For G_ij(u)=<g_{u,i},g_{u,j}>_A, lambda_max(G(u))=||E_u||_{A->C^2}^2; a uniform Hardy/Green bound gives sup_{0.08<=u<=0.52} lambda_max(G(u))<infinity."
        ],
        "finiteEvidence": {
          "maxFiniteEConstant": 934694.7045980463,
          "maxFiniteDEConstant": 131172.6997163925,
          "maxDirectRangeRelativeDefect": 1.6764349414129878e-80,
          "maxGlobalHighFullFrac": 1.1943753378212075e-06,
          "maxGlobalDerivativeHighFullFrac": 1.2016772286010286e-06,
          "traceToSourceActiveDim": 2,
          "traceToSourceRangeResidualRelative": 2.411802011191882e-69,
          "traceToSourceCoefficientOperator": 201.41472755309704,
          "traceGreenSampledMaxDensityL2": 349.5148388300294,
          "traceGreenRefinementMaxWeightedDensityL2": 339.2666879549353,
          "traceGreenDensityL2Spread": 0.02494134192640493,
          "traceGreenSampledIbpDefect": 2481283.9499772824,
          "traceGreenRegularizedIbpDefect": 114872.78146325507,
          "traceGreenRegularizedRangeResidual": 9.797678374642602e-70,
          "traceGreenJumpSolveResidual": 0.0,
          "traceGreenJumpInverseFrobenius": 6.551722209743162e+16,
          "traceGreenInteriorSourceSolved": true,
          "traceGreenEndpointResidual": 4.904278671755176e-27,
          "traceGreenEndpointMaxZNorm": 2.791429837949141,
          "traceGreenEndpointActualRhsInRange": true,
          "traceGreenExactEndpointReduction": true,
          "traceGreenEndpointCompactBound": true,
          "traceGreenActiveAnnihilatorCriterion": true,
          "traceGreenActiveUniqueContinuation": false,
          "inactiveFracUpper": 0.0013454526382754603,
          "activeTraceKernelSourceFrac": 0.0,
          "evalRepresenterNorm2Basis20": 80.1690618322107,
          "boundaryCoverNorm2Basis20": 9691.01222596988,
          "evalCoverNorm2Basis20": 929820.1045831669,
          "fixedScanMaxEvalRepresenterNorm2": 2029.6204783009384,
          "fixedScanMaxBoundaryCoverNorm2": 148535.74992824855,
          "maxFactorRelativeDefect": 1.2851186279135082e-78
        },
        "remainingAnalyticGap": "Prove the continuum active trace-to-source range inclusion and the continuum source-inactive Hardy/Schur tail bound for the actual source rows. Do not require separate boundedness of all endpoint jet functionals.",
        "interpretation": "The continuum Green representers should be constructed directly as A-Riesz representers of the two Lagrange source rows. Finite direct representers and active trace-to-source factorizations are exact to roundoff; the continuum range/tail theorem remains open."
      },
      "sourceRangeHardyGreenEstimateClosed": false,
      "greenRepresenterCertificate": {
        "basis": 20,
        "constraints": 12,
        "cutoff": 6,
        "highModes": 2,
        "maxRangeRelativeDefect": 1.6764349414129878e-80,
        "maxEConstant": 934694.7045980463,
        "maxDEConstant": 131172.6997163925,
        "maxCombinedConstant": 973324.7904649787,
        "representerCount": 12,
        "rows": [
          {
            "u": 0.08,
            "EConstant": 934694.7045980463,
            "dEConstant": 38630.085866932364,
            "combinedSumConstant": 973324.7904649787,
            "maxRangeRelativeDefect": 1.576033466847222e-80
          },
          {
            "u": 0.3,
            "EConstant": 831399.8380072507,
            "dEConstant": 89452.2143422963,
            "combinedSumConstant": 920852.0523495469,
            "maxRangeRelativeDefect": 1.6034029290831172e-80
          },
          {
            "u": 0.52,
            "EConstant": 703078.5145031781,
            "dEConstant": 131172.6997163925,
            "combinedSumConstant": 834251.2142195706,
            "maxRangeRelativeDefect": 1.6764349414129878e-80
          }
        ]
      },
      "sourceWindowDerivativeCertificate": {
        "basis": 20,
        "constraints": 12,
        "cutoff": 6,
        "sourceWindow": [
          0.08,
          0.52
        ],
        "sourceGrid": 17,
        "mesh": 0.0275,
        "meshRadius": 0.01375,
        "maxSampleHighAbsorb": 934694.7045980463,
        "minSampleFullAbsorb": 589331737216.9569,
        "maxSampleHighFullFrac": 1.1943753378212075e-06,
        "maxAnalyticDerivativeHighAbsorb": 131172.6997163925,
        "maxAnalyticDerivativeHighFullFrac": 1.2016772286010286e-06,
        "analyticCoverHighAbsorb": 1869439.0088731728,
        "analyticCoverHighFullFracVsMinFull": 3.1721336062798133e-06,
        "worstDerivativeU": 0.52,
        "finiteDifferenceChecks": [
          {
            "u": 0.08,
            "analyticNorm": 242.5499019099812,
            "checks": [
              {
                "eps": 0.001,
                "absoluteDefect": 8.327699474734754e-05,
                "relativeDefect": 3.433396348197847e-07
              },
              {
                "eps": 0.0005,
                "absoluteDefect": 2.081926082675016e-05,
                "relativeDefect": 8.583495875614463e-08
              },
              {
                "eps": 0.0001,
                "absoluteDefect": 8.327705884609778e-07,
                "relativeDefect": 3.433398990901461e-09
              }
            ]
          },
          {
            "u": 0.3,
            "analyticNorm": 888.2750048836405,
            "checks": [
              {
                "eps": 0.001,
                "absoluteDefect": 0.00033332517911595686,
                "relativeDefect": 3.7524998146223955e-07
              },
              {
                "eps": 0.0005,
                "absoluteDefect": 8.333131874465032e-05,
                "relativeDefect": 9.381252234556155e-08
              },
              {
                "eps": 0.0001,
                "absoluteDefect": 3.3332530565465356e-06,
                "relativeDefect": 3.752501239166552e-09
              }
            ]
          },
          {
            "u": 0.52,
            "analyticNorm": 1458.1989456882309,
            "checks": [
              {
                "eps": 0.001,
                "absoluteDefect": 0.0004897924513621021,
                "relativeDefect": 3.358886335848591e-07
              },
              {
                "eps": 0.0005,
                "absoluteDefect": 0.000122448136068793,
                "relativeDefect": 8.397217432563754e-08
              },
              {
                "eps": 0.0001,
                "absoluteDefect": 4.897925740073581e-06,
                "relativeDefect": 3.3588871769221387e-09
              }
            ]
          }
        ]
      },
      "auxiliarySourceRangeCertificate": {
        "basis": 20,
        "constraints": 12,
        "cutoff": 6,
        "sourceRangeAbsorb": 3275599.591888308,
        "sourceRangeAbsorbFull": 2743990849413.976,
        "sourceRangeAbsorbFrac": 1.1937356105206639e-06,
        "sourceRangeSize": 56307.61958302531,
        "perSource": [
          {
            "t": 0.08,
            "pStarH": -107.41740043918624,
            "sobolevControl": 8.387881587138586e-11,
            "sourceAbsorb": 934694.7045980463,
            "sourceAbsorbFull": 782580379048.2869,
            "sourceAbsorbFrac": 1.1943753378212075e-06,
            "sourceSize": 16067.842703159009
          },
          {
            "t": 0.24,
            "pStarH": -103.17821238401122,
            "sobolevControl": 7.744408462590049e-11,
            "sourceAbsorb": 863025.4159728597,
            "sourceAbsorbFull": 722848920742.2125,
            "sourceAbsorbFrac": 1.1939222584530053e-06,
            "sourceSize": 14835.538924531822
          },
          {
            "t": 0.4,
            "pStarH": -97.7202960613159,
            "sobolevControl": 6.952398536990213e-11,
            "sourceAbsorb": 774800.9569182727,
            "sourceAbsorbFull": 649229813163.4283,
            "sourceAbsorbFrac": 1.1934155536434597e-06,
            "sourceSize": 13318.668138894931
          },
          {
            "t": 0.52,
            "pStarH": -93.05497666991295,
            "sobolevControl": 6.3085864995786e-11,
            "sourceAbsorb": 703078.5145031781,
            "sourceAbsorbFull": 589331737216.9569,
            "sourceAbsorbFrac": 1.1930097602131113e-06,
            "sourceSize": 12085.56982523443
          }
        ]
      },
      "formalProof": [
        "Let H_hi be H_M cap ker R_global with inner product <f,g>_A=<Af,g>.  For fixed u, write E_u f=(ell_1(f),ell_2(f)).",
        "If ell_k(f)=<g_k,f>_A for g_k in H_hi, then ||E_u f||^2 <= lambda_max((<g_i,g_j>_A)) ||f||_A^2 by Cauchy-Schwarz in the finite-dimensional representer span.",
        "Conversely, E_u^*E_u <= eta_u A makes each ell_k A-bounded, so the Riesz theorem supplies the representers.  Thus the estimate and Green representer theorem are equivalent.",
        "Uniform source-window control follows if u -> g_{u,k} is continuous in H_A and the representer Gram is bounded on the compact source window."
      ],
      "finiteEvidence": {
        "maxEConstant": 934694.7045980463,
        "maxDEConstant": 131172.6997163925,
        "maxRangeRelativeDefect": 1.6764349414129878e-80,
        "analyticCoverHighAbsorb": 1869439.0088731728,
        "analyticCoverHighFullFracVsMinFull": 3.1721336062798133e-06,
        "sourceRangeAbsorbFrac": 1.1937356105206639e-06
      },
      "remainingAnalyticGap": "Prove the continuum active trace-to-source range inclusion and the continuum source-inactive Hardy/Schur tail bound for the actual source rows. Do not require separate boundedness of all endpoint jet functionals.",
      "interpretation": "The source-range Hardy/Green theorem is now reduced to a precise continuum Green representer construction.  Finite representers and source-window derivative bounds are strong evidence, but the continuum estimate is still open until those representers are constructed and uniformly bounded."
    },
    "compactSourceExhaustionStatus": {
      "label": "compact-source high-block exhaustion implication",
      "closed": true,
      "status": "closed",
      "reason": "The corrected high-block proof is a compact-source/Mosco theorem, not a raw compact-kernel Sobolev coercivity theorem.  It closes the functional-analytic implication conditional on the continuum trace-frame lower bound."
    },
    "compactSourceExhaustionProof": {
      "theoremName": "compact-source high-block exhaustion proof",
      "activeJson": "synchronized_active_range_theorem.json",
      "minmaxJson": "source_inactive_minmax_tail_theorem.json",
      "frameJson": "trace_frame_continuum_passage_certificate.json",
      "quadratureJson": "trace_quadrature_stability_certificate.json",
      "traceFrameTheoremJson": "continuum_trace_frame_lower_bound_theorem.json",
      "normalizedEpsilonDelta": 0.0013454526382754603,
      "finiteLowMidSchurBudget": 0.005730309711103612,
      "absorptionSlack": 0.004384857072828152,
      "observedTraceFrameFloor": 293.11515100909196,
      "observedTraceFrameMaxResidual": 1.0928484787969945e-63,
      "observedTraceFrameMinRelativeDrift": 0.019991757322283577,
      "observedDensityRelativeDrift": 0.008937814385651955,
      "activeSourceInputStatus": {
        "label": "active source annihilation/range input",
        "closed": true,
        "status": "closed",
        "reason": "Imported from synchronized_active_range_theorem.py: R_global f=0 implies P_active Ehat f=0, equivalently E_active lies in closure Range(R_global^*)."
      },
      "certifiedSourceModelStatus": {
        "label": "certified normalized source model input",
        "closed": true,
        "status": "closed",
        "reason": "The finite/certified full-theta source model gives the normalized inactive-tail constant and verifies it is below the low/mid Schur budget."
      },
      "abstractMoscoLimsupStatus": {
        "label": "abstract Mosco limsup with bounded trace correction",
        "closed": true,
        "status": "closed",
        "reason": "If V_N is A-graph dense, sampled traces converge on V_N, and the sampled trace map has a uniformly bounded right inverse, then each f in H_M has corrected approximants f_N in H_{M,N}.  The correction norm is bounded by gamma_0^{-1/2}||R_N v_N|| and tends to zero."
      },
      "abstractMoscoLiminfStatus": {
        "label": "abstract Mosco liminf from weak compactness and trace consistency",
        "closed": true,
        "status": "closed",
        "reason": "If f_N is A-bounded in H_{M,N}, Hilbert weak compactness gives a subsequence.  Trace consistency passes R_N f_N=0 to R_global f=0, and finite low/mid A-orthogonality passes by strong convergence of the removed modes."
      },
      "compactSourceNormConvergenceStatus": {
        "label": "compact source operator norm convergence",
        "closed": true,
        "status": "closed",
        "reason": "Mosco convergence of closed subspaces is equivalent to strong convergence of the A-orthogonal projections.  For compact S=Ehat^*Ehat, strong projection convergence gives ||Pi_N S Pi_N-S||_{A->A}->0."
      },
      "minmaxContinuumPassageStatus": {
        "label": "continuum min-max passage",
        "closed": true,
        "status": "closed",
        "reason": "Norm convergence of compact positive source operators implies convergence of lambda_3 and of the spectral min-max tail.  The continuum P_2 estimate follows from Courant-Fischer."
      },
      "finiteTraceFrameEvidenceStatus": {
        "label": "finite trace-frame evidence",
        "closed": true,
        "status": "closed",
        "reason": "The finite weighted trace frames have positive observed lower bound and stable trace-mesh refinement.  This is numerical evidence for, not a standalone analytic proof of, the continuum uniform frame lower bound."
      },
      "continuumTraceFrameLowerBoundStatus": {
        "label": "continuum uniform trace-frame lower bound",
        "closed": true,
        "status": "closed",
        "reason": "Imported from continuum_trace_frame_lower_bound_theorem.py: active range plus source noncollapse make R_global injective on the finite active spectral space; compactness gives gamma_delta>0, and finite-dimensional quadrature consistency gives bounded sampled-trace correction right inverses for fine trace meshes."
      },
      "continuumTraceFrameLowerBoundTheorem": {
        "theoremName": "continuum trace-frame lower bound theorem",
        "activeRangeJson": "synchronized_active_range_theorem.json",
        "sourceRankJson": "full_theta_source_quadrature_certificate.json",
        "finiteFrameJson": "trace_frame_continuum_passage_certificate.json",
        "quadratureJson": "trace_quadrature_stability_certificate.json",
        "activeDimension": 2,
        "activeEigenvalues": [
          11489025587.757864,
          140116882778.8568
        ],
        "observedFiniteFrameFloor": 293.11515100909196,
        "observedFiniteFrameMaxResidual": 1.0928484787969945e-63,
        "observedTraceMeshFrameMinDrift": 0.019991757322283577,
        "observedTraceMeshDensityDrift": 0.008937814385651955,
        "sourceSideNoncollapseStatus": {
          "label": "full-Phi active source noncollapse",
          "closed": true,
          "status": "closed",
          "reason": "Imported from full_theta_source_quadrature_certificate.py.  It proves that E_active is injective on the active source spectral space after continuum source quadrature and theta-tail errors."
        },
        "activeRangeStatus": {
          "label": "closed active range implication",
          "closed": true,
          "status": "closed",
          "reason": "Imported from synchronized_active_range_theorem.py: E_active lies in closure Range(R_global^*), equivalently R_global f=0 implies E_active f=0."
        },
        "traceInjectivityOnActiveSpaceStatus": {
          "label": "R_global injective on H_delta",
